1.234918
-0.889125
0.558945
-0.451682
0.474507
0.442121
0.342702
-0.363587
0.283722
0.264716
0.266175
0.293278
-0.248895
0.246807
0.184422
-0.185670
0.200887
-0.167469
0.177483
-0.203369
0.136542
-0.154337
0.159384
-0.186746
0.177511
0.151765
0.179211
-0.150867
-0.125760
0.144253
0.125116
-0.140032
-0.121016
0.123232
-0.155392
0.129023
0.128975
-0.114801
0.121246
0.111141
0.111735
-0.117066
-0.096033
0.126792
-0.125275
-0.107321
0.124680
0.114605
-0.103585
-0.099336
0.103815
-0.091380
0.114079
-0.121325
0.108762
0.107896
-0.093831
0.097757
0.101347
-0.099008
0.093620
-0.083112
-0.098584
0.081493
-0.101558
0.101712
-0.100732
0.080446
0.091293
-0.088451
0.073257
-0.086162
0.087704
0.089298
-0.105671
0.091157
-0.096825
-0.077180
0.087714
0.072891
-0.072601
0.071025
0.095405
-0.083534
-0.064738
0.080390
-0.089477
0.076419
-0.086529
0.078688
0.086982
0.070551
-0.072739
0.078289
0.069711
-0.078415
0.079809
-0.069386
0.068092
-0.095380
0.082388
-0.094861
0.063509
0.078838
-0.070446
-0.066477
0.075094
-0.062414
0.074197
0.066758
-0.067716
0.091762
0.065474
-0.065709
-0.063911
-0.079307
0.072798
0.072038
-0.076375
0.065213
-0.072845
-0.070078
0.060227
-0.071250
0.060048
-0.052394
-0.056387
0.055989
-0.078772
0.072528
-0.078345
0.067536
-0.074010
0.068153
-0.070733
0.057943
0.061382
0.077543
-0.060627
0.067865
-0.067398
-0.060325
0.056827
0.053944
-0.055201
-0.057264
-0.056629
0.061559
0.054830
-0.050817
0.055604
0.062442
-0.065672
0.065061
0.056434
-0.051397
0.059890
-0.063155
0.060482
-0.063980
0.056848
-0.065051
-0.050187
0.058097
-0.047891
0.060927
0.057107
-0.057003
0.057625
-0.064048
0.057523
0.057878
-0.056878
0.050084
-0.055121
0.059905
-0.055823
0.059084
-0.054756
0.056348
0.050089
-0.048999
-0.047615
0.050822
-0.048831
0.061410
0.061260
-0.061841
-0.054957
-0.043191
0.052310
0.049097
0.050849
-0.059799
0.044816
-0.050637
0.058129
0.052870
-0.058947
0.055726
-0.056502
-0.046165
0.051959
-0.049987
0.052854
-0.060404
0.050824
0.052881
-0.058643
0.049961
-0.057884
-0.050716
0.055793
0.047850
-0.050846
-0.048506
0.054728
0.049978
-0.049595
0.050082
-0.048699
-0.045435
0.052743
-0.052467
0.053963
-0.058193
0.043190
0.048399
-0.044400
0.055252
-0.048685
0.056754
-0.045011
0.050155
-0.048000
0.044123
-0.042395
0.049788
-0.055006
0.051654
-0.045341
0.051161
-0.055664
0.047556
-0.048449
0.042252
-0.047321
0.053529
-0.050403
0.050930
