1.033479
-0.769349
0.641028
0.541306
-0.445930
0.441087
-0.515375
-0.319372
0.332478
-0.376519
-0.288891
0.297020
0.302260
-0.265778
0.243744
-0.218913
-0.223618
-0.207628
-0.220613
0.243316
-0.227689
-0.209322
0.202435
-0.206852
0.180471
-0.205040
0.163385
-0.185254
-0.176032
0.174833
-0.127373
0.165888
-0.162576
0.142604
-0.124482
-0.144150
0.131553
-0.114793
0.134081
-0.126072
0.150226
-0.135584
0.111980
-0.112253
0.138348
-0.125176
-0.118937
0.109787
-0.125984
-0.118873
0.101732
-0.101299
-0.102424
0.124242
0.101457
-0.093740
0.097744
-0.100227
0.109820
-0.117702
-0.108289
0.101009
-0.093949
-0.091227
0.105158
-0.090442
-0.120053
0.085803
-0.098416
0.098256
-0.093561
-0.099234
0.103866
-0.076090
-0.087763
0.084876
-0.090066
0.087266
-0.076145
0.085282
-0.103233
0.091058
-0.102133
0.097784
-0.093230
0.089394
-0.089227
0.078352
-0.079069
-0.080460
0.090251
-0.087949
-0.080401
0.078989
0.064018
-0.084619
-0.071806
0.074210
-0.088787
0.072035
-0.074920
-0.080023
0.102062
-0.068528
0.075164
-0.076061
0.083862
-0.089904
0.078431
0.071453
-0.070907
-0.067561
0.084460
-0.083842
-0.075254
0.070346
0.069371
-0.072259
-0.061766
-0.062481
0.071959
-0.072293
-0.082362
0.072925
-0.061476
-0.069200
0.074776
-0.074733
0.069308
-0.072402
0.065782
-0.074846
0.073170
-0.079501
0.075852
-0.080584
0.061390
-0.064416
-0.071882
0.070412
-0.071599
0.066933
-0.071009
0.066115
-0.066172
0.063949
0.068009
-0.060193
0.059403
-0.066580
0.057364
-0.068316
0.060943
-0.077362
0.059141
-0.060518
-0.069901
0.058453
-0.058741
0.061418
-0.060498
-0.060156
0.063348
-0.055927
0.063509
0.062187
-0.055168
0.071821
-0.068132
-0.066454
0.054242
-0.063453
0.067031
-0.065891
0.060656
-0.064548
0.060181
-0.054066
0.056253
-0.059157
-0.056024
0.063307
-0.057264
-0.057758
0.059737
-0.070035
0.061217
-0.064067
0.059274
-0.059489
0.061326
-0.062450
-0.053031
0.065444
0.052367
-0.052286
-0.058203
0.062125
-0.052947
-0.053696
0.059897
-0.060327
0.057740
-0.046726
0.050077
-0.055534
0.055812
-0.060240
0.054805
-0.057424
0.054251
-0.057147
0.055332
-0.050842
0.056237
-0.058032
-0.054589
-0.047389
0.054090
-0.051506
0.063892
-0.054764
-0.064299
0.058572
-0.048292
0.061137
0.042311
-0.040888
-0.051828
0.055654
-0.049387
0.045708
-0.047453
0.053144
-0.043988
0.056472
-0.050072
0.054616
-0.053108
0.054575
-0.048910
-0.045472
0.056220
-0.046597
-0.049178
-0.046202
0.049145
-0.051184
-0.040085
0.047860
