1.165322
-0.515014
0.491505
0.403071
0.440558
-0.289928
-0.251975
0.260730
-0.280575
0.273296
0.220679
0.215703
0.201370
-0.163718
0.173481
-0.171373
-0.152207
0.160885
0.129471
-0.144309
0.144662
0.125813
-0.145335
-0.111262
-0.114454
0.116423
-0.111875
0.110234
-0.109240
0.100507
0.089674
0.096983
-0.081863
-0.076597
0.092915
0.079521
-0.084666
0.071066
-0.103648
0.075091
-0.092746
0.075396
-0.074014
0.072878
-0.100017
0.075963
-0.087508
0.071803
0.069895
-0.065311
0.085243
-0.087227
0.082012
-0.065983
0.066562
0.065508
-0.086197
0.064050
0.058264
0.060400
-0.066952
-0.055334
0.060340
-0.056048
0.056761
0.053583
-0.061481
0.049289
-0.050513
0.053048
0.051563
-0.075273
0.069467
-0.068772
0.064605
-0.069215
0.054033
-0.066669
-0.053118
0.059452
-0.066892
0.059291
-0.060475
0.046249
-0.058813
0.051280
-0.063879
0.057635
-0.057640
0.057738
0.045890
0.050040
-0.068762
0.054296
-0.061131
0.057420
-0.059417
0.048943
-0.053193
0.053544
-0.049082
0.044696
-0.057105
0.047069
-0.048331
0.052085
-0.052438
0.053645
-0.051072
0.050023
-0.050471
0.048774
0.043330
-0.051614
0.047561
-0.045527
0.046107
0.044538
-0.042408
0.048799
-0.046801
0.044075
-0.053015
0.049956
-0.045601
0.043091
-0.042360
-0.038810
0.037088
-0.037798
0.041205
0.044952
0.038338
-0.042460
0.042913
-0.051153
-0.041984
0.051726
0.039088
-0.050355
0.050990
-0.048811
0.047560
-0.047504
0.039018
-0.046810
0.036857
0.039985
0.036122
-0.048651
0.043977
-0.047235
0.034361
-0.044726
0.045845
-0.045841
0.040467
-0.035295
0.040707
-0.045529
0.043349
-0.043380
0.040429
-0.040524
0.036522
0.032928
0.030011
-0.038924
0.039276
-0.039885
0.033142
-0.039450
0.037400
-0.035850
0.034558
0.035034
-0.034200
0.031984
-0.032009
0.033241
-0.041985
0.033166
-0.039642
0.036725
-0.039563
-0.036646
0.033932
-0.033867
0.032840
0.031508
-0.030241
0.041511
-0.040613
0.034792
-0.034457
0.036582
-0.037548
0.037351
-0.035973
0.035818
-0.031807
0.037620
0.032832
0.034022
-0.033476
0.036507
-0.033389
-0.033512
0.031876
0.029622
0.033262
-0.037802
-0.030590
0.034500
-0.028642
0.032541
-0.035967
0.035192
-0.037598
0.029398
-0.028075
-0.030545
0.026817
-0.035505
0.029257
-0.032561
0.033530
-0.030408
0.031837
-0.034859
0.036056
-0.034978
0.032444
-0.033357
0.033069
-0.034746
0.035222
-0.032408
0.033920
-0.033154
-0.030506
-0.029530
0.030676
0.028186
0.025731
-0.031089
0.031769
-0.028009
0.031607
-0.035998
