1.100374
0.541156
0.511462
-0.445293
0.338741
-0.338185
-0.238861
0.245200
0.219370
0.194701
0.188416
-0.187276
0.184088
0.171638
0.141163
-0.170043
-0.143259
0.149670
0.144739
0.131164
0.102176
0.102111
-0.135866
-0.102833
0.124691
-0.121368
0.104335
-0.098307
0.106317
0.116391
-0.109188
0.093245
-0.091718
0.124190
-0.095619
0.082390
0.079754
-0.098565
-0.082012
-0.085323
0.090986
-0.081295
0.082102
0.075648
0.078186
-0.091037
0.075115
0.071001
-0.089624
-0.065932
0.075862
-0.083671
0.074691
0.072991
-0.062890
0.077815
-0.064652
0.067980
-0.080104
0.068289
0.072375
-0.068281
0.050889
-0.070697
0.051147
0.061887
-0.067066
-0.048901
0.050625
0.063681
-0.054604
0.052096
0.058101
0.060022
-0.057843
0.060289
-0.057575
0.057485
-0.058659
0.057469
-0.053951
0.052394
-0.047231
0.047738
-0.046390
0.050395
-0.058610
0.045836
0.050274
0.044322
-0.046605
0.047709
-0.049673
0.053972
-0.046942
-0.044188
-0.043166
0.046947
0.046745
0.044950
0.042182
-0.058555
-0.042523
0.048840
-0.048399
0.052090
-0.051193
0.048026
-0.051708
0.043666
-0.050217
0.044447
0.044847
-0.040113
0.036835
0.040026
-0.040424
0.040842
-0.049418
0.038905
-0.035515
0.044679
-0.044152
0.040473
0.048040
-0.043815
0.036350
0.042710
0.046707
-0.038731
0.040234
0.035365
0.039519
-0.045312
-0.036344
0.039505
-0.043916
0.041057
-0.042902
0.042926
-0.045915
0.042988
-0.042074
0.042991
-0.032404
0.034948
-0.033462
0.035097
0.037382
-0.043006
0.033311
-0.041623
0.036756
-0.040649
0.043189
-0.039562
0.035040
-0.034878
0.032822
-0.030619
0.033846
-0.040251
0.036053
0.034821
-0.034772
0.029925
0.032085
0.030722
-0.030462
0.031241
0.033863
-0.036702
-0.031449
0.035589
0.035880
-0.040833
0.032858
-0.032277
-0.032458
0.031115
-0.030703
0.031809
-0.038259
0.034325
-0.039565
0.036584
-0.035734
0.035600
-0.036492
0.032386
-0.030627
0.032068
0.037026
-0.030980
0.029537
0.030200
0.026785
-0.031512
0.026213
-0.037651
0.031683
-0.032087
0.028135
-0.031879
0.027554
0.034220
-0.035532
0.034187
-0.034985
0.034295
-0.035273
-0.031621
0.030028
-0.029611
0.029292
-0.030208
0.031355
-0.032276
0.029857
0.028658
0.027244
-0.029478
0.031516
0.025070
-0.026824
0.027562
-0.034447
0.035055
-0.036537
0.034651
-0.030348
0.030467
-0.029334
0.026749
-0.032756
0.028188
0.030626
-0.029119
0.029152
0.028422
-0.033476
0.028751
-0.033142
0.032247
-0.032097
0.027002
-0.032882
-0.023626
0.028182
-0.031057
