1.113416
-0.588953
0.522368
-0.451614
0.339137
0.367872
-0.280281
0.313948
-0.242745
-0.254183
0.239587
0.254005
-0.256732
0.189470
0.178772
-0.162236
0.194591
0.163697
-0.176449
-0.150102
-0.136155
0.131641
-0.128424
0.144657
-0.155788
0.114413
0.110733
0.115079
-0.122761
-0.117250
0.129091
-0.136154
-0.126309
0.111209
0.098915
-0.109127
0.126342
-0.113694
0.099593
0.098179
0.088357
-0.080427
0.091224
-0.111243
-0.092239
0.092272
-0.105483
-0.085053
-0.078144
0.101652
0.095697
-0.077927
-0.084483
-0.082333
0.078641
0.089419
-0.067415
0.077356
0.075401
0.075298
-0.084890
0.082042
-0.090117
0.067082
-0.084408
0.087940
-0.084722
0.075778
0.065803
-0.078140
-0.062010
0.066647
-0.069008
-0.065907
0.075423
0.061220
0.075886
-0.081553
0.072695
-0.079596
0.064863
-0.069488
0.062401
0.058062
-0.060236
0.070972
-0.079537
0.068551
-0.072516
-0.056057
0.063878
-0.075143
0.060694
-0.053906
0.073671
-0.067817
0.061728
-0.057473
0.062104
-0.054784
0.059411
-0.067524
0.058977
-0.069958
0.057374
0.068691
0.052919
-0.069073
0.048958
-0.067855
-0.052998
0.054332
-0.071325
0.059086
-0.071747
0.055432
-0.064714
0.058744
-0.060461
0.061194
-0.060424
0.056577
-0.057521
0.049988
0.048565
-0.055092
-0.056031
0.054749
-0.055171
0.052291
0.052051
-0.045294
0.050852
-0.047959
0.062114
-0.055979
-0.048822
-0.044681
0.042187
0.046746
-0.058591
0.046819
0.046558
0.041053
-0.057366
0.052821
-0.055339
0.048359
-0.044329
0.044394
-0.050168
0.042810
-0.050046
0.044074
-0.051838
0.046943
-0.050286
-0.040013
0.039397
-0.040550
0.051955
-0.046032
-0.042487
0.049915
0.045842
-0.050361
0.044810
-0.050360
0.046828
-0.049021
0.043400
-0.047106
0.043450
-0.048920
0.038479
-0.043890
-0.038034
0.046664
-0.037704
0.040834
-0.039623
0.042832
-0.045710
0.044003
-0.044971
0.043132
-0.044217
0.041767
0.036180
-0.035826
0.036202
-0.043561
0.039456
-0.049923
0.037362
-0.040974
0.037636
0.040066
-0.043825
0.043197
-0.035596
0.038575
-0.044355
0.037850
-0.038870
0.039990
-0.048780
0.041410
-0.045475
0.030771
0.033626
-0.035582
0.033373
-0.031297
-0.033974
0.040473
-0.043652
0.039893
-0.045137
0.040527
-0.031827
0.042313
-0.041413
0.040809
-0.033183
0.036243
-0.040326
0.037308
-0.040654
0.038833
-0.041166
0.030425
-0.032562
0.028945
-0.037560
-0.032054
0.035651
0.037043
0.030370
-0.041959
0.040533
-0.040512
0.036391
-0.040964
0.038680
-0.039535
0.037360
-0.037849
0.035057
-0.036380
