1.203327
-0.412632
0.386028
0.340018
-0.351957
0.208178
-0.297627
-0.247418
-0.204363
0.195564
-0.183979
0.200744
-0.145043
0.163960
-0.147500
0.121470
-0.109330
0.109162
-0.113805
0.164340
-0.147565
0.148990
-0.117979
0.110791
-0.118670
-0.104308
-0.102469
-0.101009
0.133984
-0.106125
0.111457
-0.097288
0.101596
-0.122486
0.102010
-0.084683
0.083301
-0.089191
0.087409
-0.097694
0.079493
0.082908
-0.090901
0.083660
-0.093925
-0.087422
0.077228
-0.065678
-0.070572
-0.060551
0.098525
-0.076130
0.080028
-0.070553
0.063571
-0.058989
-0.064016
0.075003
-0.066029
0.068859
-0.059312
0.062332
-0.057335
0.060105
-0.073398
0.070129
-0.057125
0.059058
-0.050748
-0.045759
0.052529
-0.048354
0.055287
0.050307
-0.051828
0.064027
-0.064187
0.054907
-0.050346
0.053619
-0.064221
0.060187
-0.055991
0.049290
-0.051086
-0.046436
0.052669
-0.058211
0.059426
-0.060227
0.053208
-0.042801
-0.047729
0.045381
0.043836
-0.053636
0.049107
-0.055447
0.058567
-0.052061
0.054027
-0.047889
0.065623
-0.051787
0.047506
-0.049718
0.040559
0.045151
-0.055914
0.044099
-0.038516
0.038641
-0.043027
0.047950
-0.048842
0.042150
-0.044833
0.042635
-0.042015
0.045946
-0.055399
0.042042
-0.046777
-0.040564
0.043811
-0.043523
0.043635
-0.035850
-0.036674
0.046680
-0.035106
0.043669
-0.039752
0.041958
-0.043032
0.040640
-0.037955
-0.034571
0.044418
-0.042844
0.039506
-0.040020
0.040776
-0.040517
-0.038041
0.046654
-0.033383
0.037400
-0.041373
0.038452
-0.040761
0.036156
-0.041605
0.040127
-0.038166
0.035828
-0.035487
0.036664
0.034144
-0.035669
0.035744
-0.040101
0.035862
-0.041369
-0.030686
0.040524
-0.034856
0.040753
0.038667
-0.036695
0.035348
-0.036656
-0.038502
0.040060
-0.041585
0.038926
-0.032576
0.034868
0.033656
-0.037875
-0.028747
0.033287
-0.035608
0.038329
-0.038344
0.038124
-0.037667
0.038491
-0.029626
0.031753
-0.031769
0.032862
-0.037949
0.036604
-0.034172
0.036594
-0.031794
0.029897
-0.032679
0.036695
-0.029954
0.038024
-0.040894
0.031864
-0.039863
0.035516
0.037082
-0.027277
0.032258
-0.034999
0.036661
-0.034594
0.033892
-0.032451
0.032586
-0.029435
0.030918
-0.035045
-0.029337
0.036289
-0.030715
0.032933
-0.027496
0.033359
-0.029251
-0.027725
0.029384
-0.033665
0.032323
-0.032571
0.031056
-0.025848
0.034050
-0.033136
0.031344
0.027640
0.029544
-0.029383
-0.031212
-0.029125
0.033477
-0.029460
0.030712
0.029642
0.029764
-0.026453
-0.029860
-0.029560
0.029859
-0.031357
