1.231567
-0.628694
0.605853
0.453248
-0.495780
0.388233
0.340612
0.315994
-0.357124
-0.257134
0.271484
0.220027
0.191543
0.195063
-0.258858
0.199266
-0.230843
-0.176560
0.157810
0.149244
-0.195382
0.149151
0.161562
0.166179
0.148951
-0.169593
-0.169225
-0.146845
0.154467
0.161622
0.153341
0.149309
-0.124106
0.146412
-0.144771
0.114042
0.138334
-0.110930
0.114277
-0.112489
0.112396
0.139614
-0.108170
0.106040
0.092406
-0.091295
0.091362
0.095035
0.107657
-0.135116
0.095635
-0.115527
-0.104606
-0.087739
0.102054
-0.119932
0.099441
0.100484
0.113405
-0.118384
0.086473
0.097584
0.101653
-0.104188
-0.090023
0.081459
-0.099442
0.093912
-0.094952
0.085247
-0.096454
0.086072
0.099969
0.083670
-0.085553
0.072850
-0.088234
0.087411
-0.083775
0.083215
0.075630
-0.089215
0.081310
-0.086750
0.080309
-0.080320
-0.069263
0.071418
0.069699
-0.072538
0.085579
0.089161
-0.086434
0.067911
0.070004
-0.076590
-0.065129
0.070931
0.085841
-0.072565
0.063231
-0.075648
-0.070733
0.074162
0.075182
0.067256
-0.070819
-0.070327
0.071161
0.063856
-0.072131
0.060704
-0.074869
0.065496
-0.071344
0.061629
-0.060309
-0.055911
0.067443
0.075442
-0.058439
0.063482
0.054354
-0.061176
0.062059
-0.068782
-0.061280
0.063955
0.068031
0.062976
0.062642
-0.062087
0.058695
-0.059397
0.051246
0.050199
-0.069275
0.052193
-0.066352
0.058150
-0.065251
-0.058585
0.060906
-0.065963
0.055703
0.057628
-0.067124
0.051499
-0.062358
0.051944
0.057313
-0.051944
0.048584
-0.060460
-0.051118
0.060295
-0.057610
0.061447
0.058406
-0.052972
0.064926
-0.070796
0.051963
0.050172
-0.067672
0.056751
-0.059786
-0.048504
0.056913
0.065204
-0.053313
0.049324
-0.050675
0.047937
0.057086
-0.063136
0.057977
-0.056855
0.052859
-0.055316
0.052908
-0.051798
0.049253
0.045909
-0.058236
0.050252
0.055160
-0.057315
-0.047060
0.043835
-0.055858
0.047234
-0.055154
0.051488
-0.053230
0.048137
0.048752
-0.048897
0.044127
-0.045944
0.046012
-0.050540
0.049297
-0.052509
0.050292
0.056374
-0.047321
0.052494
-0.054548
-0.041490
0.047415
0.038969
-0.042998
0.041734
-0.060037
0.048022
0.050747
-0.042020
0.039076
-0.054193
-0.039787
0.043672
-0.044619
0.049081
-0.055365
0.049399
-0.053494
-0.042109
0.051715
-0.045056
0.042757
0.049276
0.044145
-0.046736
-0.043555
0.052435
-0.050269
0.045174
-0.040410
0.048443
0.042977
0.047618
-0.053518
0.038375
0.042460
-0.043912
0.037843
-0.049695
0.046939
0.049294
