1.187066
-0.613129
0.492180
-0.539642
0.420202
-0.399228
0.318886
0.309534
-0.316851
-0.284271
0.231159
-0.273023
0.213836
-0.224914
0.168546
-0.181043
0.175717
-0.168264
0.186916
-0.197780
0.152523
-0.169620
0.157304
0.137112
-0.128999
-0.132955
0.127515
-0.148356
0.122987
-0.127576
-0.127322
0.119931
-0.115325
0.112372
-0.112973
0.107251
-0.117890
-0.091232
0.106702
-0.111380
0.101975
0.106343
0.092269
-0.091690
0.091152
-0.094223
-0.076196
0.094381
-0.086920
0.084169
-0.095525
0.077105
-0.095857
0.076642
-0.083099
0.074826
0.072775
0.073341
-0.084448
0.080885
-0.082341
-0.075451
-0.074613
0.085752
-0.074156
0.068467
-0.076616
-0.070699
0.068959
-0.075991
0.085959
-0.072835
0.075677
0.072531
-0.063442
0.068924
-0.059039
0.082814
-0.070536
0.081233
-0.079220
0.078264
-0.065256
-0.068607
0.071834
-0.061198
0.071345
-0.076623
0.066491
-0.072011
-0.067853
0.067807
-0.057983
-0.061517
0.062630
-0.064826
0.061304
-0.069781
0.063502
-0.063133
0.060819
-0.064258
0.051645
-0.056759
0.057421
-0.052429
-0.054198
0.063038
-0.052354
0.051772
-0.048900
0.054704
-0.051007
-0.058879
0.047227
-0.060456
-0.059703
0.061814
-0.063261
0.058697
-0.057641
0.056662
-0.054202
-0.044068
0.050590
0.047167
-0.058477
0.048121
-0.048381
0.043840
0.045368
-0.053310
0.048931
-0.055948
0.051710
-0.053073
0.049178
-0.054158
-0.048315
0.044804
-0.050170
0.049055
-0.047852
0.053151
-0.052872
0.051680
-0.052440
-0.046653
0.058993
-0.044236
0.062467
-0.051085
0.040496
-0.046292
0.041275
-0.040825
-0.044794
0.046403
0.051556
-0.049591
0.044234
0.041019
-0.048435
-0.039734
-0.043638
0.045507
0.039438
-0.044788
-0.045201
0.051455
-0.051570
0.046868
-0.051612
0.044239
-0.047429
0.046098
0.041113
-0.036663
0.037688
-0.035713
-0.042289
0.044622
0.037468
-0.042287
-0.037676
0.037595
-0.044393
0.040493
-0.046798
0.039136
-0.041883
0.045688
-0.048217
0.039808
-0.045837
0.044167
-0.044885
0.044187
-0.042406
0.040086
-0.042851
0.042368
0.042350
-0.040199
0.040223
0.037941
-0.038307
0.044109
-0.040378
0.040847
0.033784
-0.039462
-0.037095
0.041234
0.036091
-0.040305
-0.037526
-0.033872
0.035296
-0.035018
-0.034230
0.044765
-0.042675
0.039953
-0.038064
0.037833
-0.033325
0.034339
-0.040627
0.037431
-0.039950
0.038234
-0.038769
0.033706
-0.042434
0.037159
-0.041593
0.038013
-0.037745
0.037576
0.039437
-0.036493
-0.039059
0.040561
-0.037467
0.037229
-0.034001
0.029875
-0.031684
0.037055
