1.112848
0.463411
0.460123
0.388297
0.301081
0.294656
-0.247536
0.260582
0.230385
-0.194719
-0.162458
0.184469
0.185900
0.174371
0.157201
0.158593
0.148498
-0.172364
0.139581
0.145490
0.136730
-0.123649
0.124490
0.115412
0.118031
0.132140
0.109585
-0.114964
-0.110062
0.100159
0.091841
0.129030
-0.103885
0.105640
-0.097291
0.119199
0.120821
-0.110815
0.087117
-0.093386
0.111414
0.112996
0.093329
0.086189
-0.080704
0.079811
-0.095005
0.093371
0.106929
-0.088230
0.079924
-0.067328
0.078187
-0.089816
0.085556
0.084232
-0.084827
0.063414
0.066086
0.071739
-0.072961
0.071899
0.076723
-0.089397
0.074126
-0.071066
0.069347
-0.083434
0.072925
0.079135
-0.077017
0.062867
0.067420
0.074085
-0.087971
0.072736
-0.070182
0.072358
0.082912
-0.076402
-0.067148
0.079571
-0.079235
0.070153
0.068538
-0.064438
0.058098
0.066498
0.066092
0.060119
0.071340
-0.061451
-0.055849
0.059758
0.076604
-0.061139
0.053553
-0.058976
0.060554
0.070306
-0.058896
0.066970
-0.057817
0.057315
0.067411
-0.060453
0.053184
0.053481
-0.069345
0.060186
-0.063287
0.081292
0.063836
-0.053996
0.069757
-0.058907
0.060177
-0.064718
0.046421
-0.050305
0.060566
0.063505
-0.050207
0.050986
0.057713
-0.054218
0.057215
-0.052317
0.055794
0.058048
0.048571
-0.051344
0.045853
0.051495
-0.048244
0.047816
-0.060372
0.046302
0.063201
-0.056783
0.048757
0.050487
-0.049718
0.046722
0.046478
-0.051833
0.046506
-0.051357
0.044764
0.050583
-0.064320
0.052252
0.045529
-0.043909
0.044696
0.049818
-0.053319
-0.049345
0.049221
0.048488
0.050086
-0.049827
0.046472
-0.049297
0.043305
0.052756
-0.047601
0.049867
-0.045278
0.048994
0.052288
-0.046320
0.053459
-0.045965
0.045944
0.045279
0.044591
-0.049759
0.043046
0.046435
-0.041731
0.052468
-0.050869
0.044747
0.042866
0.045568
-0.048219
0.037222
0.049411
-0.050011
-0.043900
0.042003
0.058023
-0.038163
0.042189
0.044989
0.045890
-0.047740
0.043424
0.046582
-0.048247
0.041308
-0.043475
0.040668
0.049967
0.037725
-0.039762
0.037760
-0.042218
0.038730
0.035995
-0.050761
0.040397
0.039115
0.039933
0.038405
-0.038116
0.041205
0.043881
-0.051171
0.035608
-0.042898
0.051103
0.039511
-0.039801
-0.036163
0.044824
-0.046325
0.040509
-0.036408
0.040776
0.045862
-0.039922
0.035392
0.034572
-0.046469
0.035754
-0.040178
0.034571
0.037655
0.037850
0.032536
-0.034584
0.032759
0.041043
-0.039940
-0.033280
0.040570
-0.040515
0.038614
