1.126157
-0.408740
0.413793
0.317196
0.301481
0.305314
0.259548
0.178426
-0.231310
-0.205513
0.219762
-0.196453
0.163585
-0.174473
-0.188894
0.149701
0.143439
0.147810
0.127603
-0.167190
-0.115980
0.129522
0.126012
-0.146878
0.144397
-0.145444
0.120391
-0.120094
0.119395
0.116055
0.099405
0.107663
0.121797
-0.104865
-0.100588
0.109178
-0.110388
0.101884
-0.105743
0.095556
-0.097474
0.092258
0.090754
-0.076792
0.081930
-0.101712
0.089426
0.091450
0.073294
-0.093178
-0.071562
0.080843
-0.091735
0.081816
-0.074964
0.082291
0.089011
0.070680
-0.079216
0.061974
-0.082927
0.070346
-0.084919
0.071419
-0.081401
0.070934
-0.063745
0.055957
-0.065152
0.070654
0.060652
0.074113
-0.074360
0.070096
-0.078578
0.068299
-0.073688
0.067601
-0.074346
-0.073444
0.055012
0.052035
-0.061968
0.065400
0.065706
-0.055484
0.060431
0.053689
-0.061789
0.050904
-0.071909
0.063096
0.067447
-0.060960
0.051310
0.052970
0.059449
-0.067046
0.054090
0.049687
-0.055551
0.053684
0.077119
-0.052332
0.054705
-0.070909
0.060898
-0.065727
0.055730
-0.050636
0.053368
-0.062861
0.050638
-0.062781
0.053338
-0.057138
-0.052227
0.054228
0.045796
-0.056902
0.054273
0.047735
-0.045644
0.048429
0.049408
-0.052710
-0.050837
0.046872
-0.055241
0.048833
0.041684
0.047255
-0.050222
0.046800
-0.054043
0.057964
-0.055125
0.045321
0.042192
-0.054530
-0.047079
0.048382
-0.044982
-0.043814
0.045988
0.052623
0.051836
-0.047466
0.046222
-0.042579
0.046948
-0.050299
0.047513
0.043717
0.046355
0.042929
-0.058033
0.044206
-0.049518
0.046146
-0.049587
0.046245
-0.046527
0.043862
-0.042985
-0.045624
0.038701
0.041793
-0.043425
0.044494
-0.042678
0.045482
0.037351
0.042009
-0.048473
0.035879
-0.048349
0.044068
-0.041270
0.038208
0.040379
-0.047348
0.041127
-0.044001
0.036614
0.044646
-0.049848
0.036895
-0.037861
0.045445
0.045383
-0.042608
0.033067
-0.034008
0.043566
-0.040161
0.041498
-0.046185
0.034490
-0.033580
0.045978
-0.044640
0.038219
0.041491
0.034417
-0.035083
0.036445
-0.035724
-0.034658
0.037014
0.033482
-0.034535
0.033209
-0.044971
0.039507
-0.042065
0.041824
-0.041338
-0.034133
0.034909
-0.039904
0.039579
-0.040771
0.037705
-0.039862
0.035976
-0.039731
0.036812
0.038680
-0.047667
0.028127
0.030437
-0.037980
0.031985
-0.035981
0.034979
-0.035536
0.031030
0.032933
-0.034709
0.037771
0.039964
-0.039621
0.031313
0.029259
-0.030093
0.033446
0.032039
-0.038633
0.032849
